{"Layers": [[{"Bias": false, "Weights": {}, "Value": 0.18785768152889198}, {"Bias": false, "Weights": {}, "Value": 0.26174314206091315}, {"Bias": false, "Weights": {}, "Value": 0.3301435960864584}, {"Bias": false, "Weights": {}, "Value": 0.24610908349258906}], [{"Bias": true, "Weights": {"0": -0.5004213519942904, "1": -0.46232309555665296, "2": -0.4104963525808708, "3": -0.16996181163495547}, "Value": 1.0}, {"Bias": false, "Weights": {"0": 0.4595896155388006, "1": 0.07651257200786646, "2": 0.2548962186129273, "3": 0.1712417768972679}, "Value": 0.29721788168117197}, {"Bias": false, "Weights": {"0": -0.24831170413388826, "1": 0.016198227305863733, "2": -1.2107702585766138, "3": 0.3774171124865411}, "Value": 0.5408642927986949}, {"Bias": false, "Weights": {"0": -1.3674039866214318, "1": -0.459020377937736, "2": 0.2657052613181632, "3": -1.320562548828808}, "Value": 0.5670224278428532}, {"Bias": false, "Weights": {"0": 0.05505442752904529, "1": -1.1169102709848822, "2": -0.2957082837779511, "3": 0.3107271765391758}, "Value": 0.3933164993405804}, {"Bias": false, "Weights": {"0": -0.4916182165619392, "1": 0.1873062072544784, "2": 0.5246652140046356, "3": -1.2382777925385842}, "Value": 0.443548289806686}], [{"Bias": true, "Weights": {"1": -0.9356073785919098, "2": -0.4426885957727328, "3": 0.4623176602031463, "4": -0.6755805645828171, "5": 0.1571582042841104}, "Value": 1.0}, {"Bias": false, "Weights": {"1": -0.2536629107823224, "2": 0.986925779336962, "3": 0.23383545940692696, "4": 0.4350303462132536, "5": -0.692087506928253}, "Value": 0.34724}, {"Bias": false, "Weights": {"1": 0.5081391364853821, "2": 0.8373227389852891, "3": -0.868103033935908, "4": 0.29528381582372615, "5": -0.4678972407799607}, "Value": 0.32036}]]}